{"sizes":[59,29,3],"layers":[{"LAMP":{},"RUMP":{},"(OFFER":{},"LEG)":{},"LEG":{},"FROZEN":{},"CHICKEN":{},"CALF'S":{},"LIVER":{},"BEEF":{},"SIRLOIN":{},"CONTRAFILLET":{},"ANTRICOT":{},"FAT":{},"TAIL":{},"BREAST":{},"TOMATO":{},"PASTE":{},"JACKFRUIT":{},"CUCUMBER":{},"SPINACH":{},"KETCHUP":{},"PASTA":{},"BASEDOW":{},"KIWI":{},"FRUIT":{},"GRAPES":{},"RED":{},"GREEN":{},"JALAPENO":{},"PEPPER":{},"PICKLE":{},"WHITE":{},"CHEESE":{},"EZINE":{},"TAHSILDAROGLU":{},"RIZE":{},"TURIST":{},"BLACK":{},"TEA":{},"DOUGH":{},"THIN":{},"FOR":{},"BAKLAVA":{},"TABLE":{},"SALT":{},"OLIVE":{},"OIL":{},"ROASTED":{},"GROUNDNUT":{},"PCS":{},"MCVITIE'S":{},"DIGESTIVE":{},"BISCUITS":{},"DARK":{},"CHOCOLATE":{},"BONELESS":{},"SILVER":{},"SIDE":{}},{"0":{"bias":-0.15418478846549988,"weights":{"LAMP":-0.13830071687698364,"RUMP":-0.11967325955629349,"(OFFER":-0.13413827121257782,"LEG)":-0.19432735443115234,"LEG":-0.2990018427371979,"FROZEN":0.2379167079925537,"CHICKEN":-0.18918906152248383,"CALF'S":-0.2107367366552353,"LIVER":-0.22417162358760834,"BEEF":-0.13703766465187073,"SIRLOIN":0.009887219406664371,"CONTRAFILLET":-0.2270660400390625,"ANTRICOT":0.07639941573143005,"FAT":-0.19019034504890442,"TAIL":-0.00009059521835297346,"BREAST":-0.14359694719314575,"TOMATO":0.021016469225287437,"PASTE":0.34044593572616577,"JACKFRUIT":0.15149705111980438,"CUCUMBER":0.43068695068359375,"SPINACH":0.15592294931411743,"KETCHUP":-0.22248859703540802,"PASTA":0.0009175608865916729,"BASEDOW":-0.1844330132007599,"KIWI":0.1630581021308899,"FRUIT":0.21118812263011932,"GRAPES":0.32878220081329346,"RED":0.34149324893951416,"GREEN":0.26242294907569885,"JALAPENO":0.23820510506629944,"PEPPER":0.3564470112323761,"PICKLE":0.09357959032058716,"WHITE":-0.17617689073085785,"CHEESE":-0.0012848509941250086,"EZINE":-0.2644052803516388,"TAHSILDAROGLU":-0.09766097366809845,"RIZE":-0.1716049462556839,"TURIST":0.018426230177283287,"BLACK":-0.3176194131374359,"TEA":-0.2593141496181488,"DOUGH":0.07196734845638275,"THIN":-0.21475350856781006,"FOR":-0.24259519577026367,"BAKLAVA":0.051692742854356766,"TABLE":-0.05125458166003227,"SALT":-0.25145095586776733,"OLIVE":-0.0812780112028122,"OIL":-0.2109943926334381,"ROASTED":-0.036375079303979874,"GROUNDNUT":-0.19974160194396973,"PCS":-0.09181615710258484,"MCVITIE'S":0.10440075397491455,"DIGESTIVE":0.1546613574028015,"BISCUITS":0.1108829453587532,"DARK":-0.003858912270516157,"CHOCOLATE":-0.12530642747879028,"BONELESS":-0.031047122552990913,"SILVER":-0.11953596770763397,"SIDE":0.006932429503649473}},"1":{"bias":0.01881514862179756,"weights":{"LAMP":-0.06329244375228882,"RUMP":-0.1425502449274063,"(OFFER":0.007664546370506287,"LEG)":0.04081583768129349,"LEG":0.016882143914699554,"FROZEN":-0.3861694633960724,"CHICKEN":-0.17831362783908844,"CALF'S":-0.07499198615550995,"LIVER":-0.0724663957953453,"BEEF":-0.46657487750053406,"SIRLOIN":0.013379939831793308,"CONTRAFILLET":-0.1317942887544632,"ANTRICOT":-0.20644639432430267,"FAT":-0.05953608825802803,"TAIL":-0.34448549151420593,"BREAST":-0.1997867226600647,"TOMATO":-0.32086828351020813,"PASTE":-0.15695729851722717,"JACKFRUIT":-0.42736339569091797,"CUCUMBER":-0.1786276251077652,"SPINACH":-0.05245472863316536,"KETCHUP":0.381928950548172,"PASTA":0.2483559250831604,"BASEDOW":0.3864189684391022,"KIWI":-0.11793176829814911,"FRUIT":-0.23836639523506165,"GRAPES":-0.049982305616140366,"RED":0.07199102640151978,"GREEN":-0.1454935222864151,"JALAPENO":0.06711667776107788,"PEPPER":0.021453706547617912,"PICKLE":-0.1985965520143509,"WHITE":-0.07138415426015854,"CHEESE":0.3168798089027405,"EZINE":0.2360803782939911,"TAHSILDAROGLU":0.30843889713287354,"RIZE":0.3127768337726593,"TURIST":0.03292599692940712,"BLACK":0.18345783650875092,"TEA":0.1504487693309784,"DOUGH":0.17314007878303528,"THIN":0.1916717141866684,"FOR":0.14582222700119019,"BAKLAVA":0.27648982405662537,"TABLE":0.13136401772499084,"SALT":0.25640109181404114,"OLIVE":0.17336873710155487,"OIL":0.22660639882087708,"ROASTED":0.11676996946334839,"GROUNDNUT":0.07931287586688995,"PCS":0.2749442458152771,"MCVITIE'S":-0.10407315939664841,"DIGESTIVE":-0.05922896787524223,"BISCUITS":0.17558465898036957,"DARK":0.1539609283208847,"CHOCOLATE":0.06118045747280121,"BONELESS":-0.06499330699443817,"SILVER":0.07951867580413818,"SIDE":-0.161661759018898}},"2":{"bias":-0.13657613098621368,"weights":{"LAMP":0.15169301629066467,"RUMP":0.2242301106452942,"(OFFER":-0.14922650158405304,"LEG)":0.05005264654755592,"LEG":0.06212697550654411,"FROZEN":-0.3050610423088074,"CHICKEN":0.31287044286727905,"CALF'S":0.06387493014335632,"LIVER":-0.032159339636564255,"BEEF":0.09334734827280045,"SIRLOIN":0.041747696697711945,"CONTRAFILLET":0.09205825626850128,"ANTRICOT":0.12387672811746597,"FAT":-0.06266650557518005,"TAIL":-0.09336206316947937,"BREAST":0.2185143232345581,"TOMATO":-0.4086656868457794,"PASTE":-0.3288906514644623,"JACKFRUIT":-0.25000324845314026,"CUCUMBER":-0.271328330039978,"SPINACH":-0.13589349389076233,"KETCHUP":0.19484619796276093,"PASTA":0.2932370901107788,"BASEDOW":0.05261467024683952,"KIWI":-0.3402951657772064,"FRUIT":-0.14267514646053314,"GRAPES":-0.4348302185535431,"RED":0.017079731449484825,"GREEN":-0.1614322066307068,"JALAPENO":-0.09688297659158707,"PEPPER":-0.11452946066856384,"PICKLE":-0.0013151640305295587,"WHITE":-0.0277676060795784,"CHEESE":0.02464437484741211,"EZINE":0.12242086231708527,"TAHSILDAROGLU":0.30971136689186096,"RIZE":0.30000096559524536,"TURIST":0.30233442783355713,"BLACK":0.10150986164808273,"TEA":0.012139136902987957,"DOUGH":0.25490081310272217,"THIN":0.15274551510810852,"FOR":0.2156209796667099,"BAKLAVA":0.17095649242401123,"TABLE":0.32553860545158386,"SALT":0.08585142344236374,"OLIVE":0.2120022028684616,"OIL":0.28407320380210876,"ROASTED":0.1808711290359497,"GROUNDNUT":0.16950064897537231,"PCS":0.38815537095069885,"MCVITIE'S":0.19978760182857513,"DIGESTIVE":0.240303173661232,"BISCUITS":-0.020803509280085564,"DARK":-0.06584805995225906,"CHOCOLATE":0.16973944008350372,"BONELESS":0.1060555949807167,"SILVER":-0.1421360969543457,"SIDE":-0.1217760443687439}},"3":{"bias":-0.36394160985946655,"weights":{"LAMP":0.488373339176178,"RUMP":0.351117879152298,"(OFFER":0.14543260633945465,"LEG)":0.049745067954063416,"LEG":0.7755439877510071,"FROZEN":0.2297559529542923,"CHICKEN":0.869155764579773,"CALF'S":0.2534739673137665,"LIVER":0.3131578862667084,"BEEF":1.3275654315948486,"SIRLOIN":0.1550976037979126,"CONTRAFILLET":0.12435392290353775,"ANTRICOT":0.4367867410182953,"FAT":0.5980610251426697,"TAIL":0.7094436287879944,"BREAST":0.4361962378025055,"TOMATO":-0.1550852209329605,"PASTE":0.044761188328266144,"JACKFRUIT":-0.04128630831837654,"CUCUMBER":-0.2234671711921692,"SPINACH":-0.12427487224340439,"KETCHUP":-0.7361819744110107,"PASTA":-0.37194162607192993,"BASEDOW":-0.2567889094352722,"KIWI":-0.2555071711540222,"FRUIT":0.09127569943666458,"GRAPES":-0.19674615561962128,"RED":-0.07937392592430115,"GREEN":0.0954267680644989,"JALAPENO":0.18075944483280182,"PEPPER":-0.10071952641010284,"PICKLE":0.07550704479217529,"WHITE":-0.06009450554847717,"CHEESE":-0.3935968279838562,"EZINE":-0.24545325338840485,"TAHSILDAROGLU":-0.2058650553226471,"RIZE":-0.34387871623039246,"TURIST":-0.1887335181236267,"BLACK":-0.1596575826406479,"TEA":-0.2299947291612625,"DOUGH":-0.2984893321990967,"THIN":-0.3619377017021179,"FOR":0.015240075998008251,"BAKLAVA":-0.25948333740234375,"TABLE":-0.28509363532066345,"SALT":-0.27660349011421204,"OLIVE":-0.2785472571849823,"OIL":-0.24218527972698212,"ROASTED":-0.0005730981938540936,"GROUNDNUT":-0.011084269732236862,"PCS":-0.201468363404274,"MCVITIE'S":-0.12181023508310318,"DIGESTIVE":0.04767677187919617,"BISCUITS":0.056347113102674484,"DARK":-0.2604011595249176,"CHOCOLATE":-0.17500998079776764,"BONELESS":0.3871736228466034,"SILVER":0.26144275069236755,"SIDE":0.346802681684494}},"4":{"bias":-0.06262557953596115,"weights":{"LAMP":0.21947529911994934,"RUMP":0.1683541089296341,"(OFFER":-0.04034218192100525,"LEG)":0.11612295359373093,"LEG":0.2149297595024109,"FROZEN":0.1168154925107956,"CHICKEN":0.25756141543388367,"CALF'S":0.01999165117740631,"LIVER":0.06903675943613052,"BEEF":0.4701485335826874,"SIRLOIN":0.2192286103963852,"CONTRAFILLET":0.27561718225479126,"ANTRICOT":-0.014713210053741932,"FAT":0.3632844388484955,"TAIL":0.19082842767238617,"BREAST":0.32150280475616455,"TOMATO":-0.12491761147975922,"PASTE":0.13243670761585236,"JACKFRUIT":-0.040334999561309814,"CUCUMBER":-0.000910245522391051,"SPINACH":-0.008055301383137703,"KETCHUP":-0.5078645944595337,"PASTA":-0.2735288143157959,"BASEDOW":-0.05052526667714119,"KIWI":0.03413662686944008,"FRUIT":0.2519192695617676,"GRAPES":0.29345256090164185,"RED":0.20602242648601532,"GREEN":0.1238732859492302,"JALAPENO":0.09747352451086044,"PEPPER":0.2532212436199188,"PICKLE":-0.015304978005588055,"WHITE":-0.00002967090767924674,"CHEESE":-0.2490028440952301,"EZINE":-0.19523802399635315,"TAHSILDAROGLU":0.025517448782920837,"RIZE":0.05023818463087082,"TURIST":-0.04382938891649246,"BLACK":-0.3017476201057434,"TEA":-0.11100001633167267,"DOUGH":-0.2680814266204834,"THIN":-0.0042464653961360455,"FOR":-0.007016667164862156,"BAKLAVA":-0.23624330759048462,"TABLE":-0.18496336042881012,"SALT":-0.09108604490756989,"OLIVE":-0.36374908685684204,"OIL":-0.027700873091816902,"ROASTED":-0.26743295788764954,"GROUNDNUT":0.05756695568561554,"PCS":-0.3425161838531494,"MCVITIE'S":0.11939498037099838,"DIGESTIVE":-0.0526571087539196,"BISCUITS":0.09438946843147278,"DARK":-0.03584488853812218,"CHOCOLATE":-0.1270180493593216,"BONELESS":0.09449733048677444,"SILVER":-0.11616728454828262,"SIDE":-0.10826002806425095}},"5":{"bias":-0.01921691745519638,"weights":{"LAMP":-0.16110074520111084,"RUMP":-0.024988291785120964,"(OFFER":-0.00016166249406524003,"LEG)":-0.26967179775238037,"LEG":-0.17007412016391754,"FROZEN":-0.16411632299423218,"CHICKEN":-0.1984451562166214,"CALF'S":0.01135323103517294,"LIVER":-0.24392908811569214,"BEEF":-0.42094725370407104,"SIRLOIN":0.013211325742304325,"CONTRAFILLET":0.010470151901245117,"ANTRICOT":-0.04002711549401283,"FAT":-0.01282641850411892,"TAIL":-0.20523768663406372,"BREAST":0.013918453827500343,"TOMATO":-0.041186995804309845,"PASTE":-0.21056312322616577,"JACKFRUIT":-0.07268865406513214,"CUCUMBER":0.15634135901927948,"SPINACH":0.26055067777633667,"KETCHUP":0.21127621829509735,"PASTA":0.08809462189674377,"BASEDOW":0.28015807271003723,"KIWI":-0.09299345314502716,"FRUIT":0.10831250250339508,"GRAPES":-0.05147084966301918,"RED":0.21497750282287598,"GREEN":-0.0788235142827034,"JALAPENO":0.040259215980768204,"PEPPER":0.03263912349939346,"PICKLE":0.07728881388902664,"WHITE":-0.15857575833797455,"CHEESE":-0.03893031179904938,"EZINE":-0.16104756295681,"TAHSILDAROGLU":0.02415928989648819,"RIZE":0.09437502175569534,"TURIST":-0.06878652423620224,"BLACK":-0.10975069552659988,"TEA":0.12315970659255981,"DOUGH":0.03404953330755234,"THIN":0.05413788557052612,"FOR":0.016208218410611153,"BAKLAVA":-0.07896643131971359,"TABLE":0.16738726198673248,"SALT":0.08024579286575317,"OLIVE":0.1730305552482605,"OIL":0.1052575409412384,"ROASTED":0.18991774320602417,"GROUNDNUT":0.17197661101818085,"PCS":0.23568914830684662,"MCVITIE'S":0.014034385792911053,"DIGESTIVE":0.1584124118089676,"BISCUITS":0.10067665576934814,"DARK":0.059196047484874725,"CHOCOLATE":-0.1626313328742981,"BONELESS":-0.22611843049526215,"SILVER":-0.18763788044452667,"SIDE":-0.15840616822242737}},"6":{"bias":-0.2174423784017563,"weights":{"LAMP":-0.1435105949640274,"RUMP":-0.030652638524770737,"(OFFER":-0.18797044456005096,"LEG)":-0.06795627623796463,"LEG":-0.23146764934062958,"FROZEN":-0.10631738603115082,"CHICKEN":-0.022956566885113716,"CALF'S":0.14232219755649567,"LIVER":-0.21276651322841644,"BEEF":-0.2543685734272003,"SIRLOIN":-0.12338855862617493,"CONTRAFILLET":0.0035912441089749336,"ANTRICOT":-0.20395544171333313,"FAT":-0.17271356284618378,"TAIL":-0.054392967373132706,"BREAST":-0.07974743843078613,"TOMATO":-0.02661273628473282,"PASTE":0.1408596634864807,"JACKFRUIT":0.27343884110450745,"CUCUMBER":0.09211055189371109,"SPINACH":0.17492565512657166,"KETCHUP":-0.16369137167930603,"PASTA":-0.0020445582922548056,"BASEDOW":0.11835500597953796,"KIWI":0.011286956258118153,"FRUIT":0.05279269441962242,"GRAPES":0.0932762622833252,"RED":-0.10064484179019928,"GREEN":-0.0942012220621109,"JALAPENO":0.04491155967116356,"PEPPER":-0.028493991121649742,"PICKLE":0.0019771999213844538,"WHITE":0.008668202906847,"CHEESE":0.05236126482486725,"EZINE":0.057695310562849045,"TAHSILDAROGLU":-0.002820050809532404,"RIZE":-0.09072981774806976,"TURIST":-0.13267870247364044,"BLACK":-0.11554526537656784,"TEA":0.06846974045038223,"DOUGH":-0.065508633852005,"THIN":-0.16173963248729706,"FOR":0.16014952957630157,"BAKLAVA":0.03849516063928604,"TABLE":-0.041166920214891434,"SALT":0.005762667860835791,"OLIVE":-0.003971532452851534,"OIL":-0.09591201692819595,"ROASTED":-0.13613824546337128,"GROUNDNUT":0.027894096449017525,"PCS":-0.06700941920280457,"MCVITIE'S":-0.004990417510271072,"DIGESTIVE":0.13042986392974854,"BISCUITS":-0.10396407544612885,"DARK":0.08978243172168732,"CHOCOLATE":0.09685549885034561,"BONELESS":-0.017472650855779648,"SILVER":-0.012179050594568253,"SIDE":0.028140952810645103}},"7":{"bias":-0.16099512577056885,"weights":{"LAMP":0.3917301297187805,"RUMP":0.13633984327316284,"(OFFER":-0.025237374007701874,"LEG)":-0.04632744565606117,"LEG":0.6387119293212891,"FROZEN":0.09999474138021469,"CHICKEN":0.6069899201393127,"CALF'S":0.1506941318511963,"LIVER":0.39993005990982056,"BEEF":1.1560134887695312,"SIRLOIN":0.09439834207296371,"CONTRAFILLET":0.14351265132427216,"ANTRICOT":0.09542999416589737,"FAT":0.48272374272346497,"TAIL":0.6320644617080688,"BREAST":0.5183347463607788,"TOMATO":-0.012229077517986298,"PASTE":-0.1755579113960266,"JACKFRUIT":-0.19352203607559204,"CUCUMBER":-0.08569417893886566,"SPINACH":-0.20451651513576508,"KETCHUP":-0.7186210751533508,"PASTA":-0.3176470100879669,"BASEDOW":-0.4569505751132965,"KIWI":-0.0358908511698246,"FRUIT":0.13332833349704742,"GRAPES":-0.14582706987857819,"RED":0.052835505455732346,"GREEN":0.0940006896853447,"JALAPENO":0.14576363563537598,"PEPPER":-0.06931493431329727,"PICKLE":-0.03972383216023445,"WHITE":-0.3515178859233856,"CHEESE":-0.37260153889656067,"EZINE":-0.19226105511188507,"TAHSILDAROGLU":-0.03754011541604996,"RIZE":-0.34815531969070435,"TURIST":-0.345254510641098,"BLACK":-0.3312903940677643,"TEA":-0.2050277441740036,"DOUGH":-0.338040828704834,"THIN":-0.08589466661214828,"FOR":-0.325282484292984,"BAKLAVA":-0.016398197039961815,"TABLE":-0.17175447940826416,"SALT":-0.48400187492370605,"OLIVE":-0.4154976010322571,"OIL":-0.43060940504074097,"ROASTED":-0.3048449158668518,"GROUNDNUT":-0.3526996374130249,"PCS":-0.34099364280700684,"MCVITIE'S":-0.0018468506168574095,"DIGESTIVE":-0.2623141407966614,"BISCUITS":-0.16529759764671326,"DARK":-0.02274450659751892,"CHOCOLATE":-0.06568630039691925,"BONELESS":0.06627508997917175,"SILVER":0.10065910220146179,"SIDE":0.19740550220012665}},"8":{"bias":-0.22894077003002167,"weights":{"LAMP":0.20174439251422882,"RUMP":0.2519504725933075,"(OFFER":-0.1506083905696869,"LEG)":-0.1625228077173233,"LEG":-0.017424145713448524,"FROZEN":0.07595425844192505,"CHICKEN":0.07006758451461792,"CALF'S":-0.06187053397297859,"LIVER":0.21982604265213013,"BEEF":0.5271797180175781,"SIRLOIN":-0.07352052628993988,"CONTRAFILLET":0.018942831084132195,"ANTRICOT":0.052636902779340744,"FAT":0.006207537371665239,"TAIL":0.27323853969573975,"BREAST":0.3147144913673401,"TOMATO":-0.00903854425996542,"PASTE":-0.023475786671042442,"JACKFRUIT":0.10339856892824173,"CUCUMBER":0.2796715497970581,"SPINACH":0.2243272364139557,"KETCHUP":-0.3059466779232025,"PASTA":-0.22932158410549164,"BASEDOW":-0.027705829590559006,"KIWI":-0.11296715587377548,"FRUIT":0.09070054441690445,"GRAPES":0.13652226328849792,"RED":0.075967937707901,"GREEN":-0.021352648735046387,"JALAPENO":0.22230269014835358,"PEPPER":0.10931187123060226,"PICKLE":-0.08269200474023819,"WHITE":-0.05149582028388977,"CHEESE":-0.3398844003677368,"EZINE":0.042364656925201416,"TAHSILDAROGLU":-0.027124742045998573,"RIZE":-0.28735417127609253,"TURIST":0.07191334664821625,"BLACK":-0.31072938442230225,"TEA":-0.21156993508338928,"DOUGH":-0.19116394221782684,"THIN":-0.1484108865261078,"FOR":0.08897030353546143,"BAKLAVA":-0.2881409525871277,"TABLE":-0.24976690113544464,"SALT":-0.1420353502035141,"OLIVE":-0.2930251955986023,"OIL":-0.09429290145635605,"ROASTED":0.06304173916578293,"GROUNDNUT":-0.0023420352954417467,"PCS":-0.2189696580171585,"MCVITIE'S":-0.13873615860939026,"DIGESTIVE":0.13371235132217407,"BISCUITS":0.1460474729537964,"DARK":-0.14334198832511902,"CHOCOLATE":0.0796392560005188,"BONELESS":-0.0803607627749443,"SILVER":0.11741457879543304,"SIDE":-0.04944930598139763}},"9":{"bias":0.04150116816163063,"weights":{"LAMP":-0.02369389496743679,"RUMP":0.05998819321393967,"(OFFER":-0.14868250489234924,"LEG)":0.20804616808891296,"LEG":0.3908853828907013,"FROZEN":-0.3069138526916504,"CHICKEN":0.27883195877075195,"CALF'S":0.03688034787774086,"LIVER":0.24052195250988007,"BEEF":0.49150025844573975,"SIRLOIN":0.24348227679729462,"CONTRAFILLET":0.19301730394363403,"ANTRICOT":0.18832866847515106,"FAT":0.07793450355529785,"TAIL":0.3007993698120117,"BREAST":0.15337783098220825,"TOMATO":-0.6228842735290527,"PASTE":-0.705068826675415,"JACKFRUIT":-0.9622271656990051,"CUCUMBER":-0.9384801387786865,"SPINACH":-0.500420331954956,"KETCHUP":0.6299537420272827,"PASTA":0.5744249224662781,"BASEDOW":0.30752551555633545,"KIWI":-0.6294837594032288,"FRUIT":-0.46679478883743286,"GRAPES":-0.8658336400985718,"RED":-0.36586424708366394,"GREEN":-0.18818232417106628,"JALAPENO":-0.22696059942245483,"PEPPER":-0.385378360748291,"PICKLE":-0.2798609137535095,"WHITE":0.4434755742549896,"CHEESE":0.39515605568885803,"EZINE":0.28082194924354553,"TAHSILDAROGLU":0.18646855652332306,"RIZE":0.3354508876800537,"TURIST":0.4298541843891144,"BLACK":0.07900778949260712,"TEA":0.3217943012714386,"DOUGH":0.37625908851623535,"THIN":0.2666553556919098,"FOR":0.39092129468917847,"BAKLAVA":0.34680598974227905,"TABLE":0.28742846846580505,"SALT":0.5766906142234802,"OLIVE":0.534132182598114,"OIL":0.4172460734844208,"ROASTED":0.19307352602481842,"GROUNDNUT":0.34558966755867004,"PCS":0.5248007774353027,"MCVITIE'S":0.31422919034957886,"DIGESTIVE":0.1164373829960823,"BISCUITS":0.06307345628738403,"DARK":0.15609247982501984,"CHOCOLATE":0.10705434530973434,"BONELESS":-0.011800188571214676,"SILVER":0.24297691881656647,"SIDE":-0.06042188033461571}},"10":{"bias":0.07394919544458389,"weights":{"LAMP":-0.48978912830352783,"RUMP":-0.32395878434181213,"(OFFER":-0.237893745303154,"LEG)":0.06921066343784332,"LEG":-0.5931820273399353,"FROZEN":-0.010335594415664673,"CHICKEN":-0.7660019397735596,"CALF'S":-0.31762588024139404,"LIVER":-0.1458663046360016,"BEEF":-1.115024209022522,"SIRLOIN":-0.224392369389534,"CONTRAFILLET":-0.03365663066506386,"ANTRICOT":-0.07279295474290848,"FAT":-0.51143878698349,"TAIL":-0.6189895868301392,"BREAST":-0.44474995136260986,"TOMATO":0.5820590257644653,"PASTE":0.39763882756233215,"JACKFRUIT":0.8371657133102417,"CUCUMBER":0.6957361698150635,"SPINACH":0.7699090838432312,"KETCHUP":-0.4465000033378601,"PASTA":-0.2295665591955185,"BASEDOW":-0.09631320834159851,"KIWI":0.3768613934516907,"FRUIT":0.39585745334625244,"GRAPES":0.5567048788070679,"RED":0.35413849353790283,"GREEN":0.4485577642917633,"JALAPENO":0.36513999104499817,"PEPPER":0.27737587690353394,"PICKLE":0.3581823408603668,"WHITE":-0.14810262620449066,"CHEESE":-0.03582603111863136,"EZINE":-0.23909027874469757,"TAHSILDAROGLU":-0.08384844660758972,"RIZE":-0.2647990584373474,"TURIST":-0.0012947157956659794,"BLACK":-0.07549407333135605,"TEA":-0.01619701460003853,"DOUGH":-0.13483014702796936,"THIN":-0.0848357230424881,"FOR":-0.03853575512766838,"BAKLAVA":-0.13849151134490967,"TABLE":0.020195456221699715,"SALT":-0.36222392320632935,"OLIVE":-0.14748331904411316,"OIL":-0.15733376145362854,"ROASTED":-0.021304452791810036,"GROUNDNUT":-0.17120590806007385,"PCS":-0.023184848949313164,"MCVITIE'S":-0.24040117859840393,"DIGESTIVE":-0.041193485260009766,"BISCUITS":-0.03931780532002449,"DARK":-0.24218739569187164,"CHOCOLATE":0.05350475013256073,"BONELESS":-0.3641773462295532,"SILVER":-0.16389906406402588,"SIDE":-0.3530817925930023}},"11":{"bias":-0.16991718113422394,"weights":{"LAMP":-0.2881861925125122,"RUMP":-0.005979905836284161,"(OFFER":0.026098858565092087,"LEG)":-0.08079443871974945,"LEG":-0.05624235048890114,"FROZEN":-0.49741673469543457,"CHICKEN":-0.2843151390552521,"CALF'S":-0.1689031422138214,"LIVER":-0.15162692964076996,"BEEF":-0.4050069749355316,"SIRLOIN":-0.2310618758201599,"CONTRAFILLET":0.015334254130721092,"ANTRICOT":-0.07235198467969894,"FAT":-0.34111618995666504,"TAIL":-0.08063934743404388,"BREAST":-0.010055840015411377,"TOMATO":-0.26026904582977295,"PASTE":-0.49302926659584045,"JACKFRUIT":-0.6563817858695984,"CUCUMBER":-0.4255842864513397,"SPINACH":-0.16691485047340393,"KETCHUP":0.7804943919181824,"PASTA":0.6165720820426941,"BASEDOW":0.340060830116272,"KIWI":-0.4838906228542328,"FRUIT":-0.3184318244457245,"GRAPES":-0.4053354859352112,"RED":-0.28523221611976624,"GREEN":-0.16208615899085999,"JALAPENO":-0.39051514863967896,"PEPPER":-0.3297644257545471,"PICKLE":-0.35541024804115295,"WHITE":0.204181507229805,"CHEESE":0.11961764842271805,"EZINE":0.46826669573783875,"TAHSILDAROGLU":0.18580882251262665,"RIZE":0.30419430136680603,"TURIST":0.18032430112361908,"BLACK":0.15466614067554474,"TEA":0.3317852318286896,"DOUGH":0.3997671902179718,"THIN":0.3896346390247345,"FOR":0.2996920049190521,"BAKLAVA":0.3585737943649292,"TABLE":0.6434656381607056,"SALT":0.6370683312416077,"OLIVE":0.4552012085914612,"OIL":0.3013635277748108,"ROASTED":0.456404447555542,"GROUNDNUT":0.29948821663856506,"PCS":0.5283706784248352,"MCVITIE'S":0.2739625573158264,"DIGESTIVE":0.0752161517739296,"BISCUITS":0.2792508900165558,"DARK":0.20397056639194489,"CHOCOLATE":0.08774500340223312,"BONELESS":-0.04005999490618706,"SILVER":-0.17395614087581635,"SIDE":-0.13881269097328186}},"12":{"bias":-0.12100664526224136,"weights":{"LAMP":0.20026102662086487,"RUMP":0.31680363416671753,"(OFFER":-0.029113834723830223,"LEG)":0.058458421379327774,"LEG":0.545993447303772,"FROZEN":-0.053588178008794785,"CHICKEN":0.4687291383743286,"CALF'S":0.0666719377040863,"LIVER":0.25358134508132935,"BEEF":0.822192907333374,"SIRLOIN":-0.011225692927837372,"CONTRAFILLET":0.33811113238334656,"ANTRICOT":0.058309607207775116,"FAT":0.28674525022506714,"TAIL":0.5036371350288391,"BREAST":0.48230263590812683,"TOMATO":-0.2188480645418167,"PASTE":-0.3331858515739441,"JACKFRUIT":-0.4011780321598053,"CUCUMBER":-0.3564072251319885,"SPINACH":-0.42777353525161743,"KETCHUP":-0.3421575129032135,"PASTA":-0.29945340752601624,"BASEDOW":-0.023871924728155136,"KIWI":-0.09801654517650604,"FRUIT":-0.18636494874954224,"GRAPES":-0.36663126945495605,"RED":0.0645165890455246,"GREEN":-0.06540591269731522,"JALAPENO":-0.18638384342193604,"PEPPER":0.07575450092554092,"PICKLE":-0.1777234524488449,"WHITE":-0.1817438006401062,"CHEESE":-0.26371490955352783,"EZINE":-0.18499119579792023,"TAHSILDAROGLU":0.09267310053110123,"RIZE":0.11023060232400894,"TURIST":-0.20321796834468842,"BLACK":-0.20489563047885895,"TEA":-0.22116316854953766,"DOUGH":-0.09742951393127441,"THIN":-0.07177645713090897,"FOR":-0.16705653071403503,"BAKLAVA":-0.1705024689435959,"TABLE":-0.18370722234249115,"SALT":-0.04618264362215996,"OLIVE":0.02911483310163021,"OIL":0.07743103057146072,"ROASTED":-0.20783767104148865,"GROUNDNUT":0.03500153496861458,"PCS":0.11111890524625778,"MCVITIE'S":0.03982396423816681,"DIGESTIVE":-0.1035684123635292,"BISCUITS":-0.04498114809393883,"DARK":0.07135484367609024,"CHOCOLATE":-0.13418033719062805,"BONELESS":0.16816110908985138,"SILVER":0.2109285444021225,"SIDE":0.1663084328174591}},"13":{"bias":-0.24824729561805725,"weights":{"LAMP":0.15430119633674622,"RUMP":0.12652334570884705,"(OFFER":-0.15282154083251953,"LEG)":-0.16414324939250946,"LEG":0.06351051479578018,"FROZEN":-0.034147389233112335,"CHICKEN":0.1059645339846611,"CALF'S":-0.06114356964826584,"LIVER":0.018417583778500557,"BEEF":0.18564122915267944,"SIRLOIN":0.11180005222558975,"CONTRAFILLET":-0.0515470914542675,"ANTRICOT":-0.14500749111175537,"FAT":0.12412889301776886,"TAIL":0.23321124911308289,"BREAST":0.12156066298484802,"TOMATO":-0.1497773379087448,"PASTE":-0.16801413893699646,"JACKFRUIT":0.0028013866394758224,"CUCUMBER":-0.06992299109697342,"SPINACH":-0.0657290667295456,"KETCHUP":0.05845819413661957,"PASTA":0.10188555717468262,"BASEDOW":-0.08117061853408813,"KIWI":0.08107692748308182,"FRUIT":-0.21305544674396515,"GRAPES":-0.1464148312807083,"RED":0.10523545742034912,"GREEN":-0.08547408878803253,"JALAPENO":-0.011327868327498436,"PEPPER":-0.04166503995656967,"PICKLE":0.10060814023017883,"WHITE":-0.0833788588643074,"CHEESE":-0.1577862650156021,"EZINE":-0.056748323142528534,"TAHSILDAROGLU":0.0005794764147140086,"RIZE":0.03861989825963974,"TURIST":-0.23572634160518646,"BLACK":0.12703149020671844,"TEA":-0.115352563560009,"DOUGH":0.051722440868616104,"THIN":-0.10375691950321198,"FOR":-0.09326151758432388,"BAKLAVA":-0.208461195230484,"TABLE":0.014050317928195,"SALT":0.0973396897315979,"OLIVE":-0.23749053478240967,"OIL":0.08717212080955505,"ROASTED":-0.05677809938788414,"GROUNDNUT":0.036920707672834396,"PCS":-0.10035590082406998,"MCVITIE'S":-0.05027088150382042,"DIGESTIVE":-0.11371283233165741,"BISCUITS":-0.037580449134111404,"DARK":-0.14771509170532227,"CHOCOLATE":0.18416443467140198,"BONELESS":-0.14038579165935516,"SILVER":0.0655302181839943,"SIDE":-0.06420199573040009}},"14":{"bias":-0.20621047914028168,"weights":{"LAMP":0.15910382568836212,"RUMP":0.16122254729270935,"(OFFER":-0.03195333108305931,"LEG)":0.17672622203826904,"LEG":0.10935155302286148,"FROZEN":-0.13995130360126495,"CHICKEN":-0.10648351907730103,"CALF'S":-0.1124449372291565,"LIVER":0.15779177844524384,"BEEF":-0.08470989763736725,"SIRLOIN":0.09370940923690796,"CONTRAFILLET":0.18606142699718475,"ANTRICOT":0.1753225177526474,"FAT":0.05486389249563217,"TAIL":-0.10784208029508591,"BREAST":-0.09971980005502701,"TOMATO":0.06136590242385864,"PASTE":-0.12982842326164246,"JACKFRUIT":-0.03879188746213913,"CUCUMBER":-0.08317674696445465,"SPINACH":-0.1696336418390274,"KETCHUP":-0.04034652188420296,"PASTA":-0.17421813309192657,"BASEDOW":0.11177035421133041,"KIWI":-0.01992153935134411,"FRUIT":0.09212715178728104,"GRAPES":-0.08681105822324753,"RED":0.1561884731054306,"GREEN":0.09736840426921844,"JALAPENO":-0.11023541539907455,"PEPPER":0.0889323502779007,"PICKLE":-0.04676378518342972,"WHITE":-0.13916271924972534,"CHEESE":-0.10657043009996414,"EZINE":0.12105271965265274,"TAHSILDAROGLU":0.13406690955162048,"RIZE":0.02046472392976284,"TURIST":0.2099931240081787,"BLACK":-0.0683479756116867,"TEA":0.06702613830566406,"DOUGH":-0.08175532519817352,"THIN":0.0788336768746376,"FOR":-0.1593593955039978,"BAKLAVA":-0.10893470793962479,"TABLE":0.125700443983078,"SALT":0.1324843466281891,"OLIVE":0.04386259987950325,"OIL":-0.04708562791347504,"ROASTED":0.14092539250850677,"GROUNDNUT":0.07800476253032684,"PCS":0.058994852006435394,"MCVITIE'S":-0.16235710680484772,"DIGESTIVE":0.04110875725746155,"BISCUITS":-0.008206472732126713,"DARK":0.12880149483680725,"CHOCOLATE":0.22166262567043304,"BONELESS":0.1128128319978714,"SILVER":-0.14327669143676758,"SIDE":-0.054846830666065216}},"15":{"bias":-0.17603884637355804,"weights":{"LAMP":-0.24139580130577087,"RUMP":-0.04629259184002876,"(OFFER":0.055188123136758804,"LEG)":-0.02330395020544529,"LEG":-0.47016412019729614,"FROZEN":0.1679779589176178,"CHICKEN":-0.28517699241638184,"CALF'S":-0.17762920260429382,"LIVER":-0.0683845728635788,"BEEF":-0.6216703653335571,"SIRLOIN":-0.21711963415145874,"CONTRAFILLET":-0.005377043504267931,"ANTRICOT":-0.15672020614147186,"FAT":-0.2488347738981247,"TAIL":-0.4100658595561981,"BREAST":-0.10098220407962799,"TOMATO":0.381746768951416,"PASTE":0.23749659955501556,"JACKFRUIT":0.33601242303848267,"CUCUMBER":0.294592946767807,"SPINACH":0.41624313592910767,"KETCHUP":-0.1095481663942337,"PASTA":-0.004244934767484665,"BASEDOW":0.06519357860088348,"KIWI":0.32022297382354736,"FRUIT":0.26032596826553345,"GRAPES":0.24995465576648712,"RED":0.3502860367298126,"GREEN":0.35053420066833496,"JALAPENO":0.08287068456411362,"PEPPER":0.28698232769966125,"PICKLE":0.27997642755508423,"WHITE":-0.06912370771169662,"CHEESE":-0.01668604090809822,"EZINE":-0.022837042808532715,"TAHSILDAROGLU":-0.056648027151823044,"RIZE":-0.05407415330410004,"TURIST":-0.15548847615718842,"BLACK":0.09442359209060669,"TEA":-0.15249156951904297,"DOUGH":-0.22054286301136017,"THIN":-0.2598797380924225,"FOR":0.08192913979291916,"BAKLAVA":-0.01872100494801998,"TABLE":-0.14326205849647522,"SALT":-0.08639423549175262,"OLIVE":-0.21065999567508698,"OIL":-0.11753198504447937,"ROASTED":0.06509681046009064,"GROUNDNUT":-0.1444806605577469,"PCS":-0.16658258438110352,"MCVITIE'S":-0.14870500564575195,"DIGESTIVE":0.03598552942276001,"BISCUITS":0.03431394696235657,"DARK":0.048040129244327545,"CHOCOLATE":0.0734826847910881,"BONELESS":-0.24488119781017303,"SILVER":-0.056458182632923126,"SIDE":0.02130761183798313}},"16":{"bias":-0.02638765051960945,"weights":{"LAMP":-0.21837922930717468,"RUMP":-0.09226663410663605,"(OFFER":0.05950480327010155,"LEG)":-0.20912376046180725,"LEG":-0.11436845362186432,"FROZEN":0.18802304565906525,"CHICKEN":-0.057678788900375366,"CALF'S":-0.07598552852869034,"LIVER":-0.2573722004890442,"BEEF":-0.1459232121706009,"SIRLOIN":-0.19496364891529083,"CONTRAFILLET":-0.018299132585525513,"ANTRICOT":0.06603041291236877,"FAT":-0.21284058690071106,"TAIL":-0.16878922283649445,"BREAST":-0.058526650071144104,"TOMATO":0.3119818866252899,"PASTE":0.3333268463611603,"JACKFRUIT":0.34209200739860535,"CUCUMBER":0.4821716845035553,"SPINACH":0.4296620786190033,"KETCHUP":-0.30158936977386475,"PASTA":-0.339996337890625,"BASEDOW":-0.3248399794101715,"KIWI":0.23416267335414886,"FRUIT":0.4020402431488037,"GRAPES":0.5923733711242676,"RED":0.08865690231323242,"GREEN":0.3317044973373413,"JALAPENO":0.15825039148330688,"PEPPER":0.230923593044281,"PICKLE":0.3814271092414856,"WHITE":-0.21076014637947083,"CHEESE":-0.299744576215744,"EZINE":-0.4042029082775116,"TAHSILDAROGLU":-0.21150590479373932,"RIZE":-0.20132195949554443,"TURIST":-0.34512820839881897,"BLACK":-0.17199566960334778,"TEA":-0.3016233742237091,"DOUGH":-0.2522605359554291,"THIN":-0.08863978087902069,"FOR":-0.16407033801078796,"BAKLAVA":-0.04326866567134857,"TABLE":-0.18004794418811798,"SALT":-0.16384373605251312,"OLIVE":-0.16610361635684967,"OIL":-0.13600890338420868,"ROASTED":-0.2789084017276764,"GROUNDNUT":-0.14739134907722473,"PCS":-0.2053675502538681,"MCVITIE'S":-0.21047326922416687,"DIGESTIVE":-0.10051646828651428,"BISCUITS":0.030727829784154892,"DARK":0.069734588265419,"CHOCOLATE":0.00594861526042223,"BONELESS":-0.051345545798540115,"SILVER":-0.19941173493862152,"SIDE":-0.07835154235363007}},"17":{"bias":0.04553959146142006,"weights":{"LAMP":-0.25050514936447144,"RUMP":-0.10968741029500961,"(OFFER":-0.1580236852169037,"LEG)":-0.24877074360847473,"LEG":-0.26974058151245117,"FROZEN":-0.2174476981163025,"CHICKEN":-0.22385753691196442,"CALF'S":-0.07928163558244705,"LIVER":-0.16384989023208618,"BEEF":-0.6418411135673523,"SIRLOIN":-0.13112705945968628,"CONTRAFILLET":-0.018961939960718155,"ANTRICOT":-0.22911322116851807,"FAT":-0.2690376937389374,"TAIL":-0.29570135474205017,"BREAST":-0.14195109903812408,"TOMATO":0.05082511901855469,"PASTE":-0.03773033618927002,"JACKFRUIT":-0.26675140857696533,"CUCUMBER":0.0898967757821083,"SPINACH":-0.028347395360469818,"KETCHUP":0.20433242619037628,"PASTA":0.0600174218416214,"BASEDOW":0.2951655685901642,"KIWI":0.08695088326931,"FRUIT":0.03956244885921478,"GRAPES":-0.09966658055782318,"RED":-0.18309791386127472,"GREEN":-0.16802234947681427,"JALAPENO":-0.12501850724220276,"PEPPER":0.08999577909708023,"PICKLE":-0.157835453748703,"WHITE":0.28065958619117737,"CHEESE":0.11811099201440811,"EZINE":0.1540907621383667,"TAHSILDAROGLU":-0.06602904945611954,"RIZE":0.18162177503108978,"TURIST":-0.02953517623245716,"BLACK":0.03306101635098457,"TEA":0.1543506383895874,"DOUGH":0.09128104895353317,"THIN":0.025821659713983536,"FOR":0.2527804970741272,"BAKLAVA":-0.03937973454594612,"TABLE":0.02469656616449356,"SALT":0.3642173409461975,"OLIVE":0.34394311904907227,"OIL":0.09221505373716354,"ROASTED":0.30494850873947144,"GROUNDNUT":0.07541492581367493,"PCS":0.24428381025791168,"MCVITIE'S":0.15394912660121918,"DIGESTIVE":0.10508915036916733,"BISCUITS":0.0887451097369194,"DARK":-0.06900078058242798,"CHOCOLATE":0.09304285794496536,"BONELESS":-0.25824791193008423,"SILVER":0.02971082739531994,"SIDE":0.0019306601025164127}},"18":{"bias":-0.06869333237409592,"weights":{"LAMP":-0.15798473358154297,"RUMP":0.1041128933429718,"(OFFER":0.1986435502767563,"LEG)":0.02196531742811203,"LEG":0.32222047448158264,"FROZEN":-0.1452074646949768,"CHICKEN":0.20429427921772003,"CALF'S":0.005756663624197245,"LIVER":0.2327832132577896,"BEEF":0.3568982183933258,"SIRLOIN":0.08693429082632065,"CONTRAFILLET":0.14130692183971405,"ANTRICOT":0.1782544106245041,"FAT":0.14857138693332672,"TAIL":0.23242034018039703,"BREAST":0.21521437168121338,"TOMATO":-0.4106948971748352,"PASTE":-0.2005431354045868,"JACKFRUIT":-0.14510487020015717,"CUCUMBER":-0.2992834448814392,"SPINACH":-0.22933246195316315,"KETCHUP":0.3026323914527893,"PASTA":0.22942222654819489,"BASEDOW":0.09842352569103241,"KIWI":-0.15995070338249207,"FRUIT":-0.24772793054580688,"GRAPES":-0.1770102083683014,"RED":-0.24542251229286194,"GREEN":-0.13144655525684357,"JALAPENO":0.06741088628768921,"PEPPER":-0.07727767527103424,"PICKLE":-0.07840850949287415,"WHITE":0.22754524648189545,"CHEESE":0.056241314858198166,"EZINE":0.04129735380411148,"TAHSILDAROGLU":0.19381649792194366,"RIZE":0.16310565173625946,"TURIST":-0.08785924315452576,"BLACK":0.07156944274902344,"TEA":0.10326326638460159,"DOUGH":0.24978211522102356,"THIN":0.015498315915465355,"FOR":-0.11535748094320297,"BAKLAVA":-0.12505659461021423,"TABLE":0.10747621208429337,"SALT":0.05857677012681961,"OLIVE":0.17397819459438324,"OIL":0.30304449796676636,"ROASTED":0.22088369727134705,"GROUNDNUT":0.02465088851749897,"PCS":0.09580736607313156,"MCVITIE'S":0.12276008725166321,"DIGESTIVE":0.06857983022928238,"BISCUITS":0.1317664235830307,"DARK":-0.09306176006793976,"CHOCOLATE":-0.06784793734550476,"BONELESS":0.16304486989974976,"SILVER":0.19539698958396912,"SIDE":-0.05247627571225166}},"19":{"bias":0.033748555928468704,"weights":{"LAMP":-0.34525924921035767,"RUMP":-0.28818783164024353,"(OFFER":0.09985969215631485,"LEG)":0.1210152730345726,"LEG":-0.33435437083244324,"FROZEN":-0.07137540727853775,"CHICKEN":-0.21215853095054626,"CALF'S":0.11567716300487518,"LIVER":-0.1482938528060913,"BEEF":-0.47221678495407104,"SIRLOIN":-0.10012615472078323,"CONTRAFILLET":0.09035567939281464,"ANTRICOT":0.003514966694638133,"FAT":-0.20814795792102814,"TAIL":-0.37090572714805603,"BREAST":-0.30964213609695435,"TOMATO":-0.07416386902332306,"PASTE":-0.020984044298529625,"JACKFRUIT":0.011688928119838238,"CUCUMBER":-0.07832616567611694,"SPINACH":0.0478653721511364,"KETCHUP":0.3146616220474243,"PASTA":0.1495087593793869,"BASEDOW":0.014983011409640312,"KIWI":-0.09507301449775696,"FRUIT":0.007876547984778881,"GRAPES":-0.10651800781488419,"RED":-0.13414841890335083,"GREEN":0.0623396560549736,"JALAPENO":0.14211313426494598,"PEPPER":0.15146656334400177,"PICKLE":0.01599852927029133,"WHITE":0.14258578419685364,"CHEESE":-0.1291181892156601,"EZINE":-0.14302118122577667,"TAHSILDAROGLU":0.012926782481372356,"RIZE":0.030581451952457428,"TURIST":-0.1223306730389595,"BLACK":0.1501988172531128,"TEA":-0.1532236784696579,"DOUGH":0.20068670809268951,"THIN":0.1902460753917694,"FOR":0.1742686778306961,"BAKLAVA":-0.13194763660430908,"TABLE":0.042464274913072586,"SALT":0.06121208146214485,"OLIVE":0.10061252862215042,"OIL":0.13155987858772278,"ROASTED":0.045796267688274384,"GROUNDNUT":0.182747021317482,"PCS":0.04667012393474579,"MCVITIE'S":0.13206437230110168,"DIGESTIVE":-0.11855961382389069,"BISCUITS":0.20657293498516083,"DARK":-0.05060213431715965,"CHOCOLATE":0.17533352971076965,"BONELESS":-0.09183373302221298,"SILVER":-0.13803783059120178,"SIDE":-0.27507588267326355}},"20":{"bias":-0.18020643293857574,"weights":{"LAMP":-0.06611490994691849,"RUMP":0.22439000010490417,"(OFFER":0.038680896162986755,"LEG)":-0.18511724472045898,"LEG":0.10738419741392136,"FROZEN":-0.26278990507125854,"CHICKEN":-0.012139754369854927,"CALF'S":0.17048852145671844,"LIVER":0.1721573919057846,"BEEF":0.1641245037317276,"SIRLOIN":-0.0022281904239207506,"CONTRAFILLET":-0.08824020624160767,"ANTRICOT":0.06425227969884872,"FAT":0.028784403577446938,"TAIL":-0.10105874389410019,"BREAST":0.23818156123161316,"TOMATO":-0.138817697763443,"PASTE":-0.40064898133277893,"JACKFRUIT":-0.2797897756099701,"CUCUMBER":-0.3043101727962494,"SPINACH":-0.22889845073223114,"KETCHUP":0.14049535989761353,"PASTA":0.29116761684417725,"BASEDOW":0.05331505089998245,"KIWI":-0.18357066810131073,"FRUIT":-0.06495516002178192,"GRAPES":-0.3889845609664917,"RED":-0.2817222476005554,"GREEN":0.014884213916957378,"JALAPENO":-0.20595887303352356,"PEPPER":-0.1867840439081192,"PICKLE":0.028605051338672638,"WHITE":0.24542145431041718,"CHEESE":0.014145663939416409,"EZINE":0.12135825306177139,"TAHSILDAROGLU":-0.06931839883327484,"RIZE":0.2848057150840759,"TURIST":0.24919918179512024,"BLACK":-0.07247913628816605,"TEA":0.18159614503383636,"DOUGH":-0.039092037826776505,"THIN":0.1749975085258484,"FOR":0.043157871812582016,"BAKLAVA":-0.0628846287727356,"TABLE":0.2280183881521225,"SALT":0.19531767070293427,"OLIVE":0.3643912374973297,"OIL":-0.00348416599445045,"ROASTED":-0.08131780475378036,"GROUNDNUT":-0.027130108326673508,"PCS":0.05282830446958542,"MCVITIE'S":0.25986286997795105,"DIGESTIVE":-0.11824159324169159,"BISCUITS":-0.005239443387836218,"DARK":0.09623026847839355,"CHOCOLATE":0.13671723008155823,"BONELESS":-0.12127786129713058,"SILVER":0.06005780026316643,"SIDE":0.10035537928342819}},"21":{"bias":-0.05664360523223877,"weights":{"LAMP":-0.15610602498054504,"RUMP":-0.15752805769443512,"(OFFER":-0.0337786003947258,"LEG)":-0.029974596574902534,"LEG":-0.4249098300933838,"FROZEN":0.1741091012954712,"CHICKEN":-0.4610823094844818,"CALF'S":-0.14577050507068634,"LIVER":-0.033049557358026505,"BEEF":-0.5529917478561401,"SIRLOIN":-0.2690902054309845,"CONTRAFILLET":-0.16896259784698486,"ANTRICOT":-0.31053826212882996,"FAT":-0.19220168888568878,"TAIL":-0.39134711027145386,"BREAST":-0.25987809896469116,"TOMATO":0.041435062885284424,"PASTE":0.3651386499404907,"JACKFRUIT":0.20638279616832733,"CUCUMBER":0.5039051175117493,"SPINACH":0.0868069976568222,"KETCHUP":-0.15984120965003967,"PASTA":-0.16953475773334503,"BASEDOW":-0.12620146572589874,"KIWI":0.37555935978889465,"FRUIT":0.18839865922927856,"GRAPES":0.2982168197631836,"RED":0.276298850774765,"GREEN":0.34745848178863525,"JALAPENO":0.14336295425891876,"PEPPER":0.25070762634277344,"PICKLE":0.316940575838089,"WHITE":0.03488766774535179,"CHEESE":-0.1050427109003067,"EZINE":-0.27924177050590515,"TAHSILDAROGLU":-0.1250234991312027,"RIZE":0.05046701058745384,"TURIST":-0.268313467502594,"BLACK":0.07943760603666306,"TEA":-0.19606833159923553,"DOUGH":-0.12029099464416504,"THIN":-0.21889983117580414,"FOR":-0.04567345231771469,"BAKLAVA":-0.22485806047916412,"TABLE":-0.27893319725990295,"SALT":-0.012146461755037308,"OLIVE":0.043637581169605255,"OIL":0.06395735591650009,"ROASTED":-0.008793768472969532,"GROUNDNUT":-0.12836451828479767,"PCS":-0.21345296502113342,"MCVITIE'S":0.12482280284166336,"DIGESTIVE":-0.041864823549985886,"BISCUITS":0.006904061883687973,"DARK":-0.17754916846752167,"CHOCOLATE":-0.07708790898323059,"BONELESS":-0.08882084488868713,"SILVER":0.01792864501476288,"SIDE":-0.1780327409505844}},"22":{"bias":-0.0656396746635437,"weights":{"LAMP":-0.10793589800596237,"RUMP":0.059850551187992096,"(OFFER":-0.07823675870895386,"LEG)":0.0003900527663063258,"LEG":0.11677886545658112,"FROZEN":0.133387491106987,"CHICKEN":-0.051950603723526,"CALF'S":-0.044399019330739975,"LIVER":-0.028807904571294785,"BEEF":-0.18799693882465363,"SIRLOIN":-0.14995799958705902,"CONTRAFILLET":-0.0851173847913742,"ANTRICOT":0.016362283378839493,"FAT":-0.15092207491397858,"TAIL":0.15214230120182037,"BREAST":0.05218994617462158,"TOMATO":0.03669733926653862,"PASTE":-0.22709523141384125,"JACKFRUIT":-0.008038339205086231,"CUCUMBER":0.1080542802810669,"SPINACH":0.15454281866550446,"KETCHUP":0.06586509197950363,"PASTA":-0.11761999130249023,"BASEDOW":0.008780150674283504,"KIWI":0.07404690235853195,"FRUIT":-0.15086205303668976,"GRAPES":0.18602024018764496,"RED":-0.06317191570997238,"GREEN":-0.013244090601801872,"JALAPENO":-0.006780568975955248,"PEPPER":-0.03548800200223923,"PICKLE":-0.006825392600148916,"WHITE":-0.0646095797419548,"CHEESE":-0.0059648738242685795,"EZINE":-0.16727732121944427,"TAHSILDAROGLU":-0.16196699440479279,"RIZE":-0.06544596701860428,"TURIST":-0.12506727874279022,"BLACK":0.09048841893672943,"TEA":-0.09643074870109558,"DOUGH":-0.15584740042686462,"THIN":-0.04410198703408241,"FOR":0.07354827970266342,"BAKLAVA":0.0623704269528389,"TABLE":-0.16500341892242432,"SALT":-0.06093604117631912,"OLIVE":0.15784479677677155,"OIL":0.04087378457188606,"ROASTED":0.1304168701171875,"GROUNDNUT":-0.09183677285909653,"PCS":0.028548626229166985,"MCVITIE'S":0.08067920804023743,"DIGESTIVE":0.014807257801294327,"BISCUITS":0.11135755479335785,"DARK":-0.14698825776576996,"CHOCOLATE":0.06749997287988663,"BONELESS":0.05219263210892677,"SILVER":0.05864926055073738,"SIDE":-0.02396952547132969}},"23":{"bias":0.05406719073653221,"weights":{"LAMP":-0.20500463247299194,"RUMP":-0.08748707920312881,"(OFFER":-0.10665730386972427,"LEG)":0.12178640067577362,"LEG":-0.17977581918239594,"FROZEN":-0.032882627099752426,"CHICKEN":-0.3024565875530243,"CALF'S":-0.17469379305839539,"LIVER":-0.09110367298126221,"BEEF":-0.4324943721294403,"SIRLOIN":-0.06327598541975021,"CONTRAFILLET":-0.24247565865516663,"ANTRICOT":-0.09227029234170914,"FAT":-0.07070183008909225,"TAIL":-0.33798205852508545,"BREAST":-0.18542374670505524,"TOMATO":0.14846639335155487,"PASTE":0.04798031598329544,"JACKFRUIT":-0.032656487077474594,"CUCUMBER":0.03876882791519165,"SPINACH":0.19709797203540802,"KETCHUP":-0.009870884008705616,"PASTA":0.10612387210130692,"BASEDOW":0.08553994446992874,"KIWI":0.12402423471212387,"FRUIT":-0.11454889178276062,"GRAPES":0.12624241411685944,"RED":-0.08647666126489639,"GREEN":-0.09197532385587692,"JALAPENO":0.19813275337219238,"PEPPER":0.014031646773219109,"PICKLE":-0.0378536656498909,"WHITE":0.06411010026931763,"CHEESE":-0.10925806313753128,"EZINE":0.15424641966819763,"TAHSILDAROGLU":0.007112863939255476,"RIZE":0.024963336065411568,"TURIST":-0.04864005744457245,"BLACK":0.09335993230342865,"TEA":0.17963279783725739,"DOUGH":-0.07922077924013138,"THIN":0.20200005173683167,"FOR":-0.1664905697107315,"BAKLAVA":-0.10132518410682678,"TABLE":0.12475258111953735,"SALT":0.1893179714679718,"OLIVE":0.11728591471910477,"OIL":0.15111394226551056,"ROASTED":0.06223752349615097,"GROUNDNUT":-0.05231030657887459,"PCS":0.048317234963178635,"MCVITIE'S":0.14953242242336273,"DIGESTIVE":0.20509925484657288,"BISCUITS":0.14172883331775665,"DARK":0.17933529615402222,"CHOCOLATE":0.05203627422451973,"BONELESS":0.0008787744445726275,"SILVER":0.05498784780502319,"SIDE":-0.17470389604568481}},"24":{"bias":-0.035389386117458344,"weights":{"LAMP":-0.36006873846054077,"RUMP":-0.15117554366588593,"(OFFER":-0.2848830819129944,"LEG)":-0.14368771016597748,"LEG":-0.49270832538604736,"FROZEN":-0.23898662626743317,"CHICKEN":-0.5979347825050354,"CALF'S":-0.21327278017997742,"LIVER":-0.20655673742294312,"BEEF":-0.9063184261322021,"SIRLOIN":-0.07964039593935013,"CONTRAFILLET":-0.3426108658313751,"ANTRICOT":-0.2591915428638458,"FAT":-0.24727369844913483,"TAIL":-0.5903608202934265,"BREAST":-0.4883677363395691,"TOMATO":-0.22164373099803925,"PASTE":-0.32621026039123535,"JACKFRUIT":-0.5114069581031799,"CUCUMBER":-0.2897333800792694,"SPINACH":-0.09945638477802277,"KETCHUP":0.680007815361023,"PASTA":0.2800666391849518,"BASEDOW":0.5427799820899963,"KIWI":-0.37983956933021545,"FRUIT":-0.12559908628463745,"GRAPES":-0.38763001561164856,"RED":-0.1472628265619278,"GREEN":-0.024760577827692032,"JALAPENO":0.034548740833997726,"PEPPER":-0.24046191573143005,"PICKLE":-0.17094218730926514,"WHITE":0.4168369770050049,"CHEESE":0.4409293234348297,"EZINE":0.18778468668460846,"TAHSILDAROGLU":0.09336946159601212,"RIZE":0.3714296817779541,"TURIST":0.2247113585472107,"BLACK":0.26750776171684265,"TEA":0.3861533999443054,"DOUGH":0.23283500969409943,"THIN":0.35814934968948364,"FOR":0.3922269344329834,"BAKLAVA":0.3154861629009247,"TABLE":0.46491268277168274,"SALT":0.5047360062599182,"OLIVE":0.4819490909576416,"OIL":0.4891846477985382,"ROASTED":0.13293500244617462,"GROUNDNUT":0.34587568044662476,"PCS":0.3804050385951996,"MCVITIE'S":0.11957818269729614,"DIGESTIVE":0.008598403073847294,"BISCUITS":0.24718903005123138,"DARK":0.14617294073104858,"CHOCOLATE":0.21103911101818085,"BONELESS":-0.37019774317741394,"SILVER":-0.20441751182079315,"SIDE":-0.1797160506248474}},"25":{"bias":-0.026818769052624702,"weights":{"LAMP":-0.39146721363067627,"RUMP":-0.24495829641819,"(OFFER":-0.004035556688904762,"LEG)":-0.11322291940450668,"LEG":-0.3405637741088867,"FROZEN":0.13684771955013275,"CHICKEN":-0.6175302267074585,"CALF'S":0.040510136634111404,"LIVER":-0.1432023048400879,"BEEF":-0.593253493309021,"SIRLOIN":-0.26217782497406006,"CONTRAFILLET":-0.2468450665473938,"ANTRICOT":-0.31557250022888184,"FAT":-0.5406242609024048,"TAIL":-0.1462375670671463,"BREAST":-0.31514111161231995,"TOMATO":0.5713866949081421,"PASTE":0.3316502571105957,"JACKFRUIT":0.8144093155860901,"CUCUMBER":0.6014089584350586,"SPINACH":0.3564530909061432,"KETCHUP":-0.3140266537666321,"PASTA":-0.2904893159866333,"BASEDOW":-0.16054914891719818,"KIWI":0.473319947719574,"FRUIT":0.48111507296562195,"GRAPES":0.6179077625274658,"RED":0.3887101113796234,"GREEN":0.11344202607870102,"JALAPENO":0.34144359827041626,"PEPPER":0.42869144678115845,"PICKLE":0.2025270313024521,"WHITE":-0.34030449390411377,"CHEESE":-0.18732814490795135,"EZINE":-0.2800028920173645,"TAHSILDAROGLU":-0.015364354476332664,"RIZE":-0.11185257881879807,"TURIST":-0.18837480247020721,"BLACK":-0.23474375903606415,"TEA":-0.23270700871944427,"DOUGH":-0.19147342443466187,"THIN":-0.3280922770500183,"FOR":0.03193577378988266,"BAKLAVA":-0.07938016951084137,"TABLE":-0.3403718173503876,"SALT":-0.1135941818356514,"OLIVE":-0.30843597650527954,"OIL":-0.26349642872810364,"ROASTED":-0.11783906072378159,"GROUNDNUT":-0.08213131874799728,"PCS":-0.009698770008981228,"MCVITIE'S":-0.22431249916553497,"DIGESTIVE":-0.12499845772981644,"BISCUITS":-0.19125975668430328,"DARK":-0.21064327657222748,"CHOCOLATE":-0.07844526320695877,"BONELESS":-0.321249395608902,"SILVER":-0.09182637184858322,"SIDE":-0.12504401803016663}},"26":{"bias":0.01674867607653141,"weights":{"LAMP":0.3822668492794037,"RUMP":0.2207738757133484,"(OFFER":0.12109198421239853,"LEG)":0.018693750724196434,"LEG":0.49296262860298157,"FROZEN":0.24817347526550293,"CHICKEN":0.6365365386009216,"CALF'S":0.13047409057617188,"LIVER":0.3203274607658386,"BEEF":0.723507821559906,"SIRLOIN":0.31448468565940857,"CONTRAFILLET":0.23484404385089874,"ANTRICOT":0.048628389835357666,"FAT":0.34237635135650635,"TAIL":0.5958306789398193,"BREAST":0.2834373414516449,"TOMATO":0.2136409878730774,"PASTE":0.14385972917079926,"JACKFRUIT":0.023700138553977013,"CUCUMBER":0.34441250562667847,"SPINACH":-0.03470531478524208,"KETCHUP":-0.6356980204582214,"PASTA":-0.3972451686859131,"BASEDOW":-0.5748105645179749,"KIWI":0.20601476728916168,"FRUIT":0.24664562940597534,"GRAPES":0.3470781743526459,"RED":0.28902384638786316,"GREEN":0.0003933283733204007,"JALAPENO":0.15677626430988312,"PEPPER":-0.049474891275167465,"PICKLE":0.11525767296552658,"WHITE":-0.420976459980011,"CHEESE":-0.25416868925094604,"EZINE":-0.4767445921897888,"TAHSILDAROGLU":-0.17760463058948517,"RIZE":-0.1373443305492401,"TURIST":-0.268471896648407,"BLACK":-0.2935502827167511,"TEA":-0.2794073224067688,"DOUGH":-0.12479621171951294,"THIN":-0.06355571746826172,"FOR":-0.30966755747795105,"BAKLAVA":-0.10777837038040161,"TABLE":-0.45659247040748596,"SALT":-0.28754785656929016,"OLIVE":-0.3641751706600189,"OIL":-0.5181525945663452,"ROASTED":-0.34999170899391174,"GROUNDNUT":-0.3307521939277649,"PCS":-0.2228323519229889,"MCVITIE'S":-0.2852409780025482,"DIGESTIVE":-0.09875791519880295,"BISCUITS":-0.22109375894069672,"DARK":-0.20932483673095703,"CHOCOLATE":-0.2027578353881836,"BONELESS":0.23354755342006683,"SILVER":0.25808125734329224,"SIDE":0.02789514698088169}},"27":{"bias":-0.052629195153713226,"weights":{"LAMP":-0.10159138590097427,"RUMP":-0.2948360741138458,"(OFFER":0.0925048366189003,"LEG)":-0.045467693358659744,"LEG":-0.1369638741016388,"FROZEN":-0.24792981147766113,"CHICKEN":-0.21109947562217712,"CALF'S":0.09321200102567673,"LIVER":-0.2199072390794754,"BEEF":-0.5086489319801331,"SIRLOIN":-0.23249420523643494,"CONTRAFILLET":-0.02113587036728859,"ANTRICOT":-0.06175965443253517,"FAT":-0.33835554122924805,"TAIL":-0.37569695711135864,"BREAST":-0.05102749168872833,"TOMATO":0.037710241973400116,"PASTE":-0.05081329122185707,"JACKFRUIT":0.10309372842311859,"CUCUMBER":-0.10435506701469421,"SPINACH":-0.01888001523911953,"KETCHUP":0.4624670445919037,"PASTA":0.14046409726142883,"BASEDOW":0.3501437306404114,"KIWI":0.13264620304107666,"FRUIT":-0.02388078160583973,"GRAPES":-0.2280217558145523,"RED":-0.04623069614171982,"GREEN":0.10794860124588013,"JALAPENO":-0.006874133367091417,"PEPPER":0.09710917621850967,"PICKLE":0.1015370786190033,"WHITE":-0.011762174777686596,"CHEESE":0.06333522498607635,"EZINE":0.00763248186558485,"TAHSILDAROGLU":0.13001054525375366,"RIZE":0.13473127782344818,"TURIST":-0.03059752658009529,"BLACK":0.0589301735162735,"TEA":0.2621719241142273,"DOUGH":0.2616459131240845,"THIN":0.1915726363658905,"FOR":0.12592442333698273,"BAKLAVA":0.20444688200950623,"TABLE":0.11639571189880371,"SALT":0.34316056966781616,"OLIVE":0.017497992143034935,"OIL":0.0387054942548275,"ROASTED":0.06261840462684631,"GROUNDNUT":0.22455766797065735,"PCS":0.22558440268039703,"MCVITIE'S":0.23103292286396027,"DIGESTIVE":0.002950349124148488,"BISCUITS":0.07577694952487946,"DARK":0.006608529016375542,"CHOCOLATE":0.25464001297950745,"BONELESS":-0.1137736365199089,"SILVER":0.0314662829041481,"SIDE":-0.21253663301467896}},"28":{"bias":-0.07152072340250015,"weights":{"LAMP":0.10690437257289886,"RUMP":-0.043461333960294724,"(OFFER":0.1575053334236145,"LEG)":-0.0570908859372139,"LEG":0.16505874693393707,"FROZEN":-0.00476091681048274,"CHICKEN":0.23388923704624176,"CALF'S":0.07422088831663132,"LIVER":0.13343797624111176,"BEEF":0.25644147396087646,"SIRLOIN":-0.12388856709003448,"CONTRAFILLET":0.25310108065605164,"ANTRICOT":-0.06359463185071945,"FAT":0.14508230984210968,"TAIL":0.23965510725975037,"BREAST":0.0657915323972702,"TOMATO":-0.24918849766254425,"PASTE":-0.06829479336738586,"JACKFRUIT":-0.1685926616191864,"CUCUMBER":-0.08934976905584335,"SPINACH":0.11549337953329086,"KETCHUP":-0.015628118067979813,"PASTA":-0.05541409179568291,"BASEDOW":-0.12464919686317444,"KIWI":0.0003464236797299236,"FRUIT":0.08391178399324417,"GRAPES":0.10080292075872421,"RED":0.09530400484800339,"GREEN":-0.01786203309893608,"JALAPENO":0.047418687492609024,"PEPPER":0.09876373410224915,"PICKLE":-0.13769030570983887,"WHITE":0.0011614046525210142,"CHEESE":-0.16367565095424652,"EZINE":-0.19319657981395721,"TAHSILDAROGLU":-0.2712908089160919,"RIZE":-0.15036781132221222,"TURIST":0.11448336392641068,"BLACK":0.022484811022877693,"TEA":0.10065997391939163,"DOUGH":-0.19410036504268646,"THIN":-0.1619006246328354,"FOR":0.08320990204811096,"BAKLAVA":-0.17528681457042694,"TABLE":-0.15273892879486084,"SALT":0.09257114678621292,"OLIVE":-0.19138768315315247,"OIL":0.06529934704303741,"ROASTED":-0.20363865792751312,"GROUNDNUT":0.09069231152534485,"PCS":-0.2423478215932846,"MCVITIE'S":-0.0959351435303688,"DIGESTIVE":0.11544807255268097,"BISCUITS":-0.1662067472934723,"DARK":-0.005985833704471588,"CHOCOLATE":0.13370980322360992,"BONELESS":0.19442762434482574,"SILVER":-0.06276018917560577,"SIDE":-0.13139063119888306}}},{"MEAT":{"bias":0.08029933273792267,"weights":{"0":-0.32805556058883667,"1":-0.6858783960342407,"2":0.1889319270849228,"3":2.0170888900756836,"4":0.6407619118690491,"5":-0.5088750720024109,"6":-0.42231228947639465,"7":1.6892752647399902,"8":0.47850802540779114,"9":0.5569878816604614,"10":-1.850467562675476,"11":-0.669585645198822,"12":1.3644977807998657,"13":0.13431361317634583,"14":-0.10257215797901154,"15":-1.020121693611145,"16":-0.3710205852985382,"17":-0.8834701180458069,"18":0.41306599974632263,"19":-0.8648717403411865,"20":0.1634005904197693,"21":-0.9234684705734253,"22":-0.050212547183036804,"23":-0.5875309705734253,"24":-1.5241506099700928,"25":-1.2727957963943481,"26":1.3657552003860474,"27":-0.9555903673171997,"28":0.4329526126384735}},"VEGGIE":{"bias":-0.210157573223114,"weights":{"0":0.9951378107070923,"1":-0.6314153671264648,"2":-0.9977221488952637,"3":-0.6986063718795776,"4":0.12620559334754944,"5":0.1705222874879837,"6":0.3022414743900299,"7":-0.31063413619995117,"8":0.23668482899665833,"9":-2.5396244525909424,"10":2.1981892585754395,"11":-1.455561637878418,"12":-0.891929030418396,"13":-0.3052650988101959,"14":-0.24880008399486542,"15":1.0529334545135498,"16":1.3477259874343872,"17":-0.10785098373889923,"18":-0.9722774028778076,"19":0.0204608254134655,"20":-0.830242931842804,"21":1.1232688426971436,"22":0.10179856419563293,"23":0.2732153832912445,"24":-0.766178548336029,"25":1.8126834630966187,"26":0.4179607629776001,"27":-0.20529499650001526,"28":-0.12286534160375595}},"STORE":{"bias":-0.1998712569475174,"weights":{"0":-0.4711686074733734,"1":0.9320071935653687,"2":0.7288327217102051,"3":-1.8940329551696777,"4":-1.005746603012085,"5":0.5069080591201782,"6":-0.09273231029510498,"7":-1.7962349653244019,"8":-0.8076995611190796,"9":1.5390048027038574,"10":-0.3278483748435974,"11":1.9351292848587036,"12":-0.6222081184387207,"13":-0.31408408284187317,"14":-0.054444320499897,"15":-0.351315975189209,"16":-0.9509438872337341,"17":0.7951039671897888,"18":0.25144827365875244,"19":0.3795449733734131,"20":0.48664775490760803,"21":-0.31780335307121277,"22":-0.05300724506378174,"23":0.40431350469589233,"24":1.9884926080703735,"25":-0.8392229080200195,"26":-1.915144443511963,"27":0.64823979139328,"28":-0.3867720067501068}}}],"outputLookup":true,"inputLookup":true,"activation":"sigmoid","trainOpts":{"iterations":20000,"errorThresh":0.005,"log":false,"logPeriod":10,"learningRate":0.3,"momentum":0.1,"callbackPeriod":10,"beta1":0.9,"beta2":0.999,"epsilon":1e-8}}